<?xml version="1.0"?>
<opencv_storage>
<cascade>
  <stageType>BOOST</stageType>
  <featureType>HAAR</featureType>
  <height>24</height>
  <width>24</width>
  <stageParams>
    <boostType>GAB</boostType>
    <minHitRate>9.9500000476837158e-01</minHitRate>
    <maxFalseAlarm>5.0000000000000000e-01</maxFalseAlarm>
    <weightTrimRate>9.4999999999999996e-01</weightTrimRate>
    <maxDepth>1</maxDepth>
    <maxWeakCount>100</maxWeakCount></stageParams>
  <featureParams>
    <maxCatCount>0</maxCatCount>
    <featSize>1</featSize>
    <mode>BASIC</mode></featureParams>
  <stageNum>12</stageNum>
  <stages>
    <!-- stage 0 -->
    <_>
      <maxWeakCount>7</maxWeakCount>
      <stageThreshold>-7.6883596181869507e-01</stageThreshold>
      <weakClassifiers>
        <_>
          <internalNodes>
            0 -1 38 5.6686524301767349e-02</internalNodes>
          <leafValues>
            -8.1395350396633148e-02 8.2051283121109009e-01</leafValues></_>
        <_>
          <internalNodes>
            0 -1 61 -9.8258703947067261e-03</internalNodes>
          <leafValues>
            7.4498939514160156e-01 -2.1595278382301331e-01</leafValues></_>
        <_>
          <internalNodes>
            0 -1 66 -6.3097890233621001e-04</internalNodes>
          <leafValues>
            6.2932962179183960e-01 -3.5142168402671814e-01</leafValues></_>
        <_>
          <internalNodes>
            0 -1 78 -2.1736288443207741e-02</internalNodes>
          <leafValues>
            8.3261549472808838e-01 -2.0140780508518219e-01</leafValues></_>
        <_>
          <internalNodes>
            0 -1 22 7.9806323628872633e-04</internalNodes>
          <leafValues>
            -3.4187099337577820e-01 5.2254545688629150e-01</leafValues></_>
        <_>
          <internalNodes>
            0 -1 56 8.5744581883773208e-04</internalNodes>
          <leafValues>
            -2.9835668206214905e-01 6.3941168785095215e-01</leafValues></_>
        <_>
          <internalNodes>
            0 -1 35 -6.4603297505527735e-04</internalNodes>
          <leafValues>
            6.7534184455871582e-01 -2.3937284946441650e-01</leafValues></_></weakClassifiers></_>
    <!-- stage 1 -->
    <_>
      <maxWeakCount>8</maxWeakCount>
      <stageThreshold>-8.8779693841934204e-01</stageThreshold>
      <weakClassifiers>
        <_>
          <internalNodes>
            0 -1 46 8.0187898129224777e-04</internalNodes>
          <leafValues>
            -6.5088756382465363e-02 7.5308644771575928e-01</leafValues></_>
        <_>
          <internalNodes>
            0 -1 54 6.6794375889003277e-03</internalNodes>
          <leafValues>
            -1.9686549901962280e-01 7.4118775129318237e-01</leafValues></_>
        <_>
          <internalNodes>
            0 -1 85 2.7637663297355175e-03</internalNodes>
          <leafValues>
            -2.5525841116905212e-01 7.2127270698547363e-01</leafValues></_>
        <_>
          <internalNodes>
            0 -1 14 -4.3574436567723751e-03</internalNodes>
          <leafValues>
            5.1814430952072144e-01 -3.9119175076484680e-01</leafValues></_>
        <_>
          <internalNodes>
            0 -1 89 -1.6922741197049618e-03</internalNodes>
          <leafValues>
            7.2323691844940186e-01 -2.6009470224380493e-01</leafValues></_>
        <_>
          <internalNodes>
            0 -1 49 -5.7448621373623610e-04</internalNodes>
          <leafValues>
            8.5521364212036133e-01 -2.3922325670719147e-01</leafValues></_>
        <_>
          <internalNodes>
            0 -1 48 6.9675815757364035e-04</internalNodes>
          <leafValues>
            -2.2681680321693420e-01 7.1278756856918335e-01</leafValues></_>
        <_>
          <internalNodes>
            0 -1 41 -1.3498184271156788e-03</internalNodes>
          <leafValues>
            7.4555915594100952e-01 -2.3658940196037292e-01</leafValues></_></weakClassifiers></_>
    <!-- stage 2 -->
    <_>
      <maxWeakCount>9</maxWeakCount>
      <stageThreshold>-3.0096590518951416e-01</stageThreshold>
      <weakClassifiers>
        <_>
          <internalNodes>
            0 -1 73 2.2743060253560543e-03</internalNodes>
          <leafValues>
            -3.4482758492231369e-02 7.3684209585189819e-01</leafValues></_>
        <_>
          <internalNodes>
            0 -1 60 -1.4606332406401634e-03</internalNodes>
          <leafValues>
            6.5941089391708374e-01 -1.8574108183383942e-01</leafValues></_>
        <_>
          <internalNodes>
            0 -1 58 -9.6808373928070068e-03</internalNodes>
          <leafValues>
            6.5291255712509155e-01 -2.4133102595806122e-01</leafValues></_>
        <_>
          <internalNodes>
            0 -1 84 6.1902906745672226e-03</internalNodes>
          <leafValues>
            -1.8447901308536530e-01 8.2144904136657715e-01</leafValues></_>
        <_>
          <internalNodes>
            0 -1 23 -2.5872737169265747e-03</internalNodes>
          <leafValues>
            7.3880618810653687e-01 -2.1698987483978271e-01</leafValues></_>
        <_>
          <internalNodes>
            0 -1 16 3.2287561334669590e-03</internalNodes>
          <leafValues>
            -1.8581384420394897e-01 7.7742469310760498e-01</leafValues></_>
        <_>
          <internalNodes>
            0 -1 70 -8.2902202848345041e-04</internalNodes>
          <leafValues>
            5.4638820886611938e-01 -3.0312967300415039e-01</leafValues></_>
        <_>
          <internalNodes>
            0 -1 63 -5.7726580416783690e-04</internalNodes>
          <leafValues>
            5.1989114284515381e-01 -3.8029593229293823e-01</leafValues></_>
        <_>
          <internalNodes>
            0 -1 32 4.3267840519547462e-03</internalNodes>
          <leafValues>
            -1.8954548239707947e-01 9.6554023027420044e-01</leafValues></_></weakClassifiers></_>
    <!-- stage 3 -->
    <_>
      <maxWeakCount>10</maxWeakCount>
      <stageThreshold>-3.4361156821250916e-01</stageThreshold>
      <weakClassifiers>
        <_>
          <internalNodes>
            0 -1 47 1.1010386981070042e-02</internalNodes>
          <leafValues>
            -4.4943820685148239e-02 8.0555558204650879e-01</leafValues></_>
        <_>
          <internalNodes>
            0 -1 44 -1.0515207424759865e-02</internalNodes>
          <leafValues>
            7.5084686279296875e-01 -1.5972164273262024e-01</leafValues></_>
        <_>
          <internalNodes>
            0 -1 29 -7.4497936293482780e-03</internalNodes>
          <leafValues>
            6.2273162603378296e-01 -2.9077413678169250e-01</leafValues></_>
        <_>
          <internalNodes>
            0 -1 11 2.4844631552696228e-02</internalNodes>
          <leafValues>
            -1.8932615220546722e-01 8.1651562452316284e-01</leafValues></_>
        <_>
          <internalNodes>
            0 -1 20 1.5640813857316971e-02</internalNodes>
          <leafValues>
            -2.2322961688041687e-01 7.3835635185241699e-01</leafValues></_>
        <_>
          <internalNodes>
            0 -1 53 5.2873822860419750e-03</internalNodes>
          <leafValues>
            -2.7806547284126282e-01 5.3565061092376709e-01</leafValues></_>
        <_>
          <internalNodes>
            0 -1 80 -1.2250303290784359e-02</internalNodes>
          <leafValues>
            8.1762093305587769e-01 -2.5847011804580688e-01</leafValues></_>
        <_>
          <internalNodes>
            0 -1 88 4.5076333917677402e-03</internalNodes>
          <leafValues>
            -1.6296926140785217e-01 8.9241611957550049e-01</leafValues></_>
        <_>
          <internalNodes>
            0 -1 74 -6.1941300518810749e-03</internalNodes>
          <leafValues>
            7.8423029184341431e-01 -1.6776500642299652e-01</leafValues></_>
        <_>
          <internalNodes>
            0 -1 57 3.3360705710947514e-03</internalNodes>
          <leafValues>
            -2.3256185650825500e-01 7.3341327905654907e-01</leafValues></_></weakClassifiers></_>
    <!-- stage 4 -->
    <_>
      <maxWeakCount>7</maxWeakCount>
      <stageThreshold>-3.4406906366348267e-01</stageThreshold>
      <weakClassifiers>
        <_>
          <internalNodes>
            0 -1 5 3.5418453626334667e-03</internalNodes>
          <leafValues>
            -1.2101911008358002e-01 7.4193549156188965e-01</leafValues></_>
        <_>
          <internalNodes>
            0 -1 18 -1.0504146106541157e-02</internalNodes>
          <leafValues>
            8.7608921527862549e-01 -1.3755434751510620e-01</leafValues></_>
        <_>
          <internalNodes>
            0 -1 36 1.2952761724591255e-02</internalNodes>
          <leafValues>
            -1.7104613780975342e-01 8.7016129493713379e-01</leafValues></_>
        <_>
          <internalNodes>
            0 -1 59 -2.7546310424804688e-01</internalNodes>
          <leafValues>
            -7.6306694746017456e-01 2.3502551019191742e-01</leafValues></_>
        <_>
          <internalNodes>
            0 -1 8 -2.3927219212055206e-02</internalNodes>
          <leafValues>
            7.2802263498306274e-01 -2.2549137473106384e-01</leafValues></_>
        <_>
          <internalNodes>
            0 -1 1 1.7664620652794838e-02</internalNodes>
          <leafValues>
            -2.0220933854579926e-01 8.1123954057693481e-01</leafValues></_>
        <_>
          <internalNodes>
            0 -1 42 1.5331872273236513e-03</internalNodes>
          <leafValues>
            4.1336363554000854e-01 -3.5148739814758301e-01</leafValues></_></weakClassifiers></_>
    <!-- stage 5 -->
    <_>
      <maxWeakCount>9</maxWeakCount>
      <stageThreshold>-5.4835951328277588e-01</stageThreshold>
      <weakClassifiers>
        <_>
          <internalNodes>
            0 -1 86 -5.2467029308900237e-04</internalNodes>
          <leafValues>
            -4.7540983557701111e-01 4.1798943281173706e-01</leafValues></_>
        <_>
          <internalNodes>
            0 -1 52 2.2908389568328857e-02</internalNodes>
          <leafValues>
            -2.8926470875740051e-01 7.0870667695999146e-01</leafValues></_>
        <_>
          <internalNodes>
            0 -1 15 1.0144810378551483e-01</internalNodes>
          <leafValues>
            -1.9635678827762604e-01 8.4964871406555176e-01</leafValues></_>
        <_>
          <internalNodes>
            0 -1 45 -1.9310696050524712e-02</internalNodes>
          <leafValues>
            7.0036005973815918e-01 -1.9694738090038300e-01</leafValues></_>
        <_>
          <internalNodes>
            0 -1 40 3.1551778316497803e-02</internalNodes>
          <leafValues>
            -1.8052719533443451e-01 8.6150753498077393e-01</leafValues></_>
        <_>
          <internalNodes>
            0 -1 3 4.6323824673891068e-02</internalNodes>
          <leafValues>
            -2.2782710194587708e-01 6.9693505764007568e-01</leafValues></_>
        <_>
          <internalNodes>
            0 -1 93 1.5129519160836935e-03</internalNodes>
          <leafValues>
            3.4850180149078369e-01 -6.6930735111236572e-01</leafValues></_>
        <_>
          <internalNodes>
            0 -1 24 1.4840063158771954e-05</internalNodes>
          <leafValues>
            -4.4516089558601379e-01 4.4094419479370117e-01</leafValues></_>
        <_>
          <internalNodes>
            0 -1 0 5.5722119286656380e-03</internalNodes>
          <leafValues>
            2.4107109010219574e-01 -6.6971743106842041e-01</leafValues></_></weakClassifiers></_>
    <!-- stage 6 -->
    <_>
      <maxWeakCount>7</maxWeakCount>
      <stageThreshold>-4.3042910099029541e-01</stageThreshold>
      <weakClassifiers>
        <_>
          <internalNodes>
            0 -1 87 -1.1275847646174952e-04</internalNodes>
          <leafValues>
            6.1016947031021118e-01 -1.6666667163372040e-01</leafValues></_>
        <_>
          <internalNodes>
            0 -1 76 1.4221298624761403e-04</internalNodes>
          <leafValues>
            -2.6249587535858154e-01 5.8662080764770508e-01</leafValues></_>
        <_>
          <internalNodes>
            0 -1 25 7.8666917979717255e-03</internalNodes>
          <leafValues>
            -3.1358221173286438e-01 6.1094921827316284e-01</leafValues></_>
        <_>
          <internalNodes>
            0 -1 81 3.4107436658814549e-04</internalNodes>
          <leafValues>
            -3.6792102456092834e-01 6.2830722332000732e-01</leafValues></_>
        <_>
          <internalNodes>
            0 -1 72 -2.0375064923427999e-04</internalNodes>
          <leafValues>
            6.2147378921508789e-01 -2.7671259641647339e-01</leafValues></_>
        <_>
          <internalNodes>
            0 -1 71 -1.4776756870560348e-04</internalNodes>
          <leafValues>
            5.5808079242706299e-01 -3.1863304972648621e-01</leafValues></_>
        <_>
          <internalNodes>
            0 -1 19 1.2238367344252765e-04</internalNodes>
          <leafValues>
            -3.7796765565872192e-01 6.0538965463638306e-01</leafValues></_></weakClassifiers></_>
    <!-- stage 7 -->
    <_>
      <maxWeakCount>8</maxWeakCount>
      <stageThreshold>-4.6834027767181396e-01</stageThreshold>
      <weakClassifiers>
        <_>
          <internalNodes>
            0 -1 30 1.8362622358836234e-04</internalNodes>
          <leafValues>
            -4.4025156646966934e-02 6.2637364864349365e-01</leafValues></_>
        <_>
          <internalNodes>
            0 -1 21 1.4108978211879730e-02</internalNodes>
          <leafValues>
            -2.4016632139682770e-01 5.3209912776947021e-01</leafValues></_>
        <_>
          <internalNodes>
            0 -1 51 7.9835560172796249e-03</internalNodes>
          <leafValues>
            -2.3713114857673645e-01 7.0413023233413696e-01</leafValues></_>
        <_>
          <internalNodes>
            0 -1 10 -6.5272062784060836e-05</internalNodes>
          <leafValues>
            4.8959356546401978e-01 -3.1142583489418030e-01</leafValues></_>
        <_>
          <internalNodes>
            0 -1 67 1.6844391939230263e-04</internalNodes>
          <leafValues>
            -3.7293678522109985e-01 4.4229668378829956e-01</leafValues></_>
        <_>
          <internalNodes>
            0 -1 90 2.5307817850261927e-04</internalNodes>
          <leafValues>
            -2.4053589999675751e-01 6.3434255123138428e-01</leafValues></_>
        <_>
          <internalNodes>
            0 -1 95 -2.3849654826335609e-04</internalNodes>
          <leafValues>
            4.7780597209930420e-01 -3.3365216851234436e-01</leafValues></_>
        <_>
          <internalNodes>
            0 -1 64 9.3313446268439293e-04</internalNodes>
          <leafValues>
            -2.6175183057785034e-01 5.9268611669540405e-01</leafValues></_></weakClassifiers></_>
    <!-- stage 8 -->
    <_>
      <maxWeakCount>9</maxWeakCount>
      <stageThreshold>-4.0537258982658386e-01</stageThreshold>
      <weakClassifiers>
        <_>
          <internalNodes>
            0 -1 65 8.1935300840996206e-05</internalNodes>
          <leafValues>
            -7.8947365283966064e-02 6.3265305757522583e-01</leafValues></_>
        <_>
          <internalNodes>
            0 -1 91 -3.5408280382398516e-05</internalNodes>
          <leafValues>
            4.6977731585502625e-01 -2.6773169636726379e-01</leafValues></_>
        <_>
          <internalNodes>
            0 -1 28 3.6074215313419700e-04</internalNodes>
          <leafValues>
            -3.0596512556076050e-01 4.3923455476760864e-01</leafValues></_>
        <_>
          <internalNodes>
            0 -1 50 -4.6937107981648296e-05</internalNodes>
          <leafValues>
            4.9047252535820007e-01 -2.9737022519111633e-01</leafValues></_>
        <_>
          <internalNodes>
            0 -1 82 6.6069670720025897e-04</internalNodes>
          <leafValues>
            -3.4279602766036987e-01 4.4930255413055420e-01</leafValues></_>
        <_>
          <internalNodes>
            0 -1 68 1.1196777224540710e-02</internalNodes>
          <leafValues>
            -1.9788502156734467e-01 7.2475606203079224e-01</leafValues></_>
        <_>
          <internalNodes>
            0 -1 79 -4.0813330560922623e-03</internalNodes>
          <leafValues>
            4.6669346094131470e-01 -3.8762384653091431e-01</leafValues></_>
        <_>
          <internalNodes>
            0 -1 2 1.2140197941334918e-04</internalNodes>
          <leafValues>
            -3.6818870902061462e-01 4.7890651226043701e-01</leafValues></_>
        <_>
          <internalNodes>
            0 -1 43 -6.5656626247800887e-05</internalNodes>
          <leafValues>
            4.7508049011230469e-01 -3.9581671357154846e-01</leafValues></_></weakClassifiers></_>
    <!-- stage 9 -->
    <_>
      <maxWeakCount>9</maxWeakCount>
      <stageThreshold>-5.8023238182067871e-01</stageThreshold>
      <weakClassifiers>
        <_>
          <internalNodes>
            0 -1 12 1.4840063158771954e-05</internalNodes>
          <leafValues>
            -1.3043478131294250e-01 6.0714286565780640e-01</leafValues></_>
        <_>
          <internalNodes>
            0 -1 27 3.4225754439830780e-02</internalNodes>
          <leafValues>
            -1.1234669387340546e-01 8.9583969116210938e-01</leafValues></_>
        <_>
          <internalNodes>
            0 -1 31 -1.8541421741247177e-02</internalNodes>
          <leafValues>
            -5.3546881675720215e-01 2.5754368305206299e-01</leafValues></_>
        <_>
          <internalNodes>
            0 -1 69 -1.0498426854610443e-02</internalNodes>
          <leafValues>
            5.7474011182785034e-01 -2.5904259085655212e-01</leafValues></_>
        <_>
          <internalNodes>
            0 -1 13 1.4516460942104459e-03</internalNodes>
          <leafValues>
            2.1249368786811829e-01 -7.8110003471374512e-01</leafValues></_>
        <_>
          <internalNodes>
            0 -1 39 -3.9483230561017990e-02</internalNodes>
          <leafValues>
            8.1154167652130127e-01 -1.8997259438037872e-01</leafValues></_>
        <_>
          <internalNodes>
            0 -1 37 -6.8776812404394150e-03</internalNodes>
          <leafValues>
            4.6684443950653076e-01 -3.3254399895668030e-01</leafValues></_>
        <_>
          <internalNodes>
            0 -1 83 6.2193034682422876e-04</internalNodes>
          <leafValues>
            -2.0582365989685059e-01 6.0499453544616699e-01</leafValues></_>
        <_>
          <internalNodes>
            0 -1 62 -3.9235652366187423e-05</internalNodes>
          <leafValues>
            5.2330213785171509e-01 -3.6347776651382446e-01</leafValues></_></weakClassifiers></_>
    <!-- stage 10 -->
    <_>
      <maxWeakCount>6</maxWeakCount>
      <stageThreshold>-4.2639875411987305e-01</stageThreshold>
      <weakClassifiers>
        <_>
          <internalNodes>
            0 -1 4 -1.4142744475975633e-03</internalNodes>
          <leafValues>
            -5.4385966062545776e-01 4.1968911886215210e-01</leafValues></_>
        <_>
          <internalNodes>
            0 -1 97 9.4288808759301901e-04</internalNodes>
          <leafValues>
            1.9150477647781372e-01 -8.6470681428909302e-01</leafValues></_>
        <_>
          <internalNodes>
            0 -1 75 5.4065734730102122e-05</internalNodes>
          <leafValues>
            -3.6173233389854431e-01 4.8938262462615967e-01</leafValues></_>
        <_>
          <internalNodes>
            0 -1 94 -1.6167932699318044e-05</internalNodes>
          <leafValues>
            5.3569978475570679e-01 -3.6675411462783813e-01</leafValues></_>
        <_>
          <internalNodes>
            0 -1 96 5.6755365803837776e-03</internalNodes>
          <leafValues>
            2.4510489404201508e-01 -8.0297112464904785e-01</leafValues></_>
        <_>
          <internalNodes>
            0 -1 9 2.6968014935846440e-05</internalNodes>
          <leafValues>
            -3.5725006461143494e-01 5.3004688024520874e-01</leafValues></_></weakClassifiers></_>
    <!-- stage 11 -->
    <_>
      <maxWeakCount>9</maxWeakCount>
      <stageThreshold>-3.7807452678680420e-01</stageThreshold>
      <weakClassifiers>
        <_>
          <internalNodes>
            0 -1 17 2.3498170077800751e-02</internalNodes>
          <leafValues>
            5.1282052882015705e-03 8.9090907573699951e-01</leafValues></_>
        <_>
          <internalNodes>
            0 -1 34 -2.1556974388659000e-03</internalNodes>
          <leafValues>
            5.7753562927246094e-01 -2.2904661297798157e-01</leafValues></_>
        <_>
          <internalNodes>
            0 -1 92 -4.2323801608290523e-05</internalNodes>
          <leafValues>
            4.1687363386154175e-01 -3.3974686264991760e-01</leafValues></_>
        <_>
          <internalNodes>
            0 -1 6 8.6842179298400879e-02</internalNodes>
          <leafValues>
            -2.4910514056682587e-01 5.9221607446670532e-01</leafValues></_>
        <_>
          <internalNodes>
            0 -1 26 -1.9582581520080566e-01</internalNodes>
          <leafValues>
            7.8332448005676270e-01 -1.9038704037666321e-01</leafValues></_>
        <_>
          <internalNodes>
            0 -1 33 4.2677614837884903e-03</internalNodes>
          <leafValues>
            -2.4411234259605408e-01 5.8842945098876953e-01</leafValues></_>
        <_>
          <internalNodes>
            0 -1 7 2.4661595001816750e-02</internalNodes>
          <leafValues>
            -2.0627528429031372e-01 6.6902673244476318e-01</leafValues></_>
        <_>
          <internalNodes>
            0 -1 77 -6.5109599381685257e-04</internalNodes>
          <leafValues>
            5.6069242954254150e-01 -2.3612809181213379e-01</leafValues></_>
        <_>
          <internalNodes>
            0 -1 55 -9.6115691121667624e-04</internalNodes>
          <leafValues>
            5.5964231491088867e-01 -2.4184237420558929e-01</leafValues></_></weakClassifiers></_></stages>
  <features>
    <_>
      <rects>
        <_>
          0 0 6 4 -1.</_>
        <_>
          2 0 2 4 3.</_></rects>
      <tilted>0</tilted></_>
    <_>
      <rects>
        <_>
          0 7 6 16 -1.</_>
        <_>
          0 7 3 8 2.</_>
        <_>
          3 15 3 8 2.</_></rects>
      <tilted>0</tilted></_>
    <_>
      <rects>
        <_>
          0 8 4 3 -1.</_>
        <_>
          2 8 2 3 2.</_></rects>
      <tilted>0</tilted></_>
    <_>
      <rects>
        <_>
          0 13 18 5 -1.</_>
        <_>
          6 13 6 5 3.</_></rects>
      <tilted>0</tilted></_>
    <_>
      <rects>
        <_>
          0 18 2 6 -1.</_>
        <_>
          0 18 1 3 2.</_>
        <_>
          1 21 1 3 2.</_></rects>
      <tilted>0</tilted></_>
    <_>
      <rects>
        <_>
          1 1 16 2 -1.</_>
        <_>
          1 2 16 1 2.</_></rects>
      <tilted>0</tilted></_>
    <_>
      <rects>
        <_>
          1 2 15 20 -1.</_>
        <_>
          1 12 15 10 2.</_></rects>
      <tilted>0</tilted></_>
    <_>
      <rects>
        <_>
          1 5 12 6 -1.</_>
        <_>
          5 5 4 6 3.</_></rects>
      <tilted>0</tilted></_>
    <_>
      <rects>
        <_>
          1 7 8 16 -1.</_>
        <_>
          1 7 4 8 2.</_>
        <_>
          5 15 4 8 2.</_></rects>
      <tilted>0</tilted></_>
    <_>
      <rects>
        <_>
          1 8 1 2 -1.</_>
        <_>
          1 9 1 1 2.</_></rects>
      <tilted>0</tilted></_>
    <_>
      <rects>
        <_>
          1 10 4 2 -1.</_>
        <_>
          1 10 2 1 2.</_>
        <_>
          3 11 2 1 2.</_></rects>
      <tilted>0</tilted></_>
    <_>
      <rects>
        <_>
          1 14 9 10 -1.</_>
        <_>
          4 14 3 10 3.</_></rects>
      <tilted>0</tilted></_>
    <_>
      <rects>
        <_>
          1 22 2 1 -1.</_>
        <_>
          2 22 1 1 2.</_></rects>
      <tilted>0</tilted></_>
    <_>
      <rects>
        <_>
          2 0 3 1 -1.</_>
        <_>
          3 0 1 1 3.</_></rects>
      <tilted>0</tilted></_>
    <_>
      <rects>
        <_>
          2 5 14 4 -1.</_>
        <_>
          2 5 7 2 2.</_>
        <_>
          9 7 7 2 2.</_></rects>
      <tilted>0</tilted></_>
    <_>
      <rects>
        <_>
          2 10 21 6 -1.</_>
        <_>
          9 10 7 6 3.</_></rects>
      <tilted>0</tilted></_>
    <_>
      <rects>
        <_>
          2 16 8 4 -1.</_>
        <_>
          2 16 4 2 2.</_>
        <_>
          6 18 4 2 2.</_></rects>
      <tilted>0</tilted></_>
    <_>
      <rects>
        <_>
          3 0 14 4 -1.</_>
        <_>
          3 2 14 2 2.</_></rects>
      <tilted>0</tilted></_>
    <_>
      <rects>
        <_>
          3 3 6 8 -1.</_>
        <_>
          3 3 3 4 2.</_>
        <_>
          6 7 3 4 2.</_></rects>
      <tilted>0</tilted></_>
    <_>
      <rects>
        <_>
          3 18 2 2 -1.</_>
        <_>
          3 19 2 1 2.</_></rects>
      <tilted>0</tilted></_>
    <_>
      <rects>
        <_>
          4 4 6 18 -1.</_>
        <_>
          4 4 3 9 2.</_>
        <_>
          7 13 3 9 2.</_></rects>
      <tilted>0</tilted></_>
    <_>
      <rects>
        <_>
          4 4 8 6 -1.</_>
        <_>
          8 4 4 6 2.</_></rects>
      <tilted>0</tilted></_>
    <_>
      <rects>
        <_>
          4 10 10 2 -1.</_>
        <_>
          4 10 5 1 2.</_>
        <_>
          9 11 5 1 2.</_></rects>
      <tilted>0</tilted></_>
    <_>
      <rects>
        <_>
          4 17 6 4 -1.</_>
        <_>
          4 17 3 2 2.</_>
        <_>
          7 19 3 2 2.</_></rects>
      <tilted>0</tilted></_>
    <_>
      <rects>
        <_>
          4 20 2 2 -1.</_>
        <_>
          4 20 1 1 2.</_>
        <_>
          5 21 1 1 2.</_></rects>
      <tilted>0</tilted></_>
    <_>
      <rects>
        <_>
          5 0 11 4 -1.</_>
        <_>
          5 2 11 2 2.</_></rects>
      <tilted>0</tilted></_>
    <_>
      <rects>
        <_>
          5 0 15 16 -1.</_>
        <_>
          5 8 15 8 2.</_></rects>
      <tilted>0</tilted></_>
    <_>
      <rects>
        <_>
          5 5 9 10 -1.</_>
        <_>
          8 5 3 10 3.</_></rects>
      <tilted>0</tilted></_>
    <_>
      <rects>
        <_>
          5 6 2 4 -1.</_>
        <_>
          6 6 1 4 2.</_></rects>
      <tilted>0</tilted></_>
    <_>
      <rects>
        <_>
          5 6 6 6 -1.</_>
        <_>
          5 6 3 3 2.</_>
        <_>
          8 9 3 3 2.</_></rects>
      <tilted>0</tilted></_>
    <_>
      <rects>
        <_>
          5 19 1 3 -1.</_>
        <_>
          5 20 1 1 3.</_></rects>
      <tilted>0</tilted></_>
    <_>
      <rects>
        <_>
          5 21 18 3 -1.</_>
        <_>
          14 21 9 3 2.</_></rects>
      <tilted>0</tilted></_>
    <_>
      <rects>
        <_>
          6 7 4 4 -1.</_>
        <_>
          6 7 2 2 2.</_>
        <_>
          8 9 2 2 2.</_></rects>
      <tilted>0</tilted></_>
    <_>
      <rects>
        <_>
          6 8 6 2 -1.</_>
        <_>
          9 8 3 2 2.</_></rects>
      <tilted>0</tilted></_>
    <_>
      <rects>
        <_>
          6 12 16 2 -1.</_>
        <_>
          6 13 16 1 2.</_></rects>
      <tilted>0</tilted></_>
    <_>
      <rects>
        <_>
          6 20 6 1 -1.</_>
        <_>
          8 20 2 1 3.</_></rects>
      <tilted>0</tilted></_>
    <_>
      <rects>
        <_>
          7 5 15 1 -1.</_>
        <_>
          12 5 5 1 3.</_></rects>
      <tilted>0</tilted></_>
    <_>
      <rects>
        <_>
          7 11 6 13 -1.</_>
        <_>
          9 11 2 13 3.</_></rects>
      <tilted>0</tilted></_>
    <_>
      <rects>
        <_>
          8 3 15 17 -1.</_>
        <_>
          13 3 5 17 3.</_></rects>
      <tilted>0</tilted></_>
    <_>
      <rects>
        <_>
          8 5 6 18 -1.</_>
        <_>
          8 5 3 9 2.</_>
        <_>
          11 14 3 9 2.</_></rects>
      <tilted>0</tilted></_>
    <_>
      <rects>
        <_>
          8 6 10 12 -1.</_>
        <_>
          8 6 5 6 2.</_>
        <_>
          13 12 5 6 2.</_></rects>
      <tilted>0</tilted></_>
    <_>
      <rects>
        <_>
          8 11 2 4 -1.</_>
        <_>
          8 11 1 2 2.</_>
        <_>
          9 13 1 2 2.</_></rects>
      <tilted>0</tilted></_>
    <_>
      <rects>
        <_>
          8 16 12 4 -1.</_>
        <_>
          8 18 12 2 2.</_></rects>
      <tilted>0</tilted></_>
    <_>
      <rects>
        <_>
          8 17 1 2 -1.</_>
        <_>
          8 18 1 1 2.</_></rects>
      <tilted>0</tilted></_>
    <_>
      <rects>
        <_>
          9 1 2 12 -1.</_>
        <_>
          9 5 2 4 3.</_></rects>
      <tilted>0</tilted></_>
    <_>
      <rects>
        <_>
          9 2 8 6 -1.</_>
        <_>
          9 5 8 3 2.</_></rects>
      <tilted>0</tilted></_>
    <_>
      <rects>
        <_>
          9 8 2 4 -1.</_>
        <_>
          9 8 1 2 2.</_>
        <_>
          10 10 1 2 2.</_></rects>
      <tilted>0</tilted></_>
    <_>
      <rects>
        <_>
          9 8 9 6 -1.</_>
        <_>
          9 10 9 2 3.</_></rects>
      <tilted>0</tilted></_>
    <_>
      <rects>
        <_>
          9 9 2 4 -1.</_>
        <_>
          9 9 1 2 2.</_>
        <_>
          10 11 1 2 2.</_></rects>
      <tilted>0</tilted></_>
    <_>
      <rects>
        <_>
          9 10 2 2 -1.</_>
        <_>
          9 10 1 1 2.</_>
        <_>
          10 11 1 1 2.</_></rects>
      <tilted>0</tilted></_>
    <_>
      <rects>
        <_>
          9 19 1 3 -1.</_>
        <_>
          9 20 1 1 3.</_></rects>
      <tilted>0</tilted></_>
    <_>
      <rects>
        <_>
          10 2 12 4 -1.</_>
        <_>
          10 2 6 2 2.</_>
        <_>
          16 4 6 2 2.</_></rects>
      <tilted>0</tilted></_>
    <_>
      <rects>
        <_>
          10 3 14 12 -1.</_>
        <_>
          10 3 7 6 2.</_>
        <_>
          17 9 7 6 2.</_></rects>
      <tilted>0</tilted></_>
    <_>
      <rects>
        <_>
          10 6 6 7 -1.</_>
        <_>
          12 6 2 7 3.</_></rects>
      <tilted>0</tilted></_>
    <_>
      <rects>
        <_>
          10 8 6 6 -1.</_>
        <_>
          10 8 3 3 2.</_>
        <_>
          13 11 3 3 2.</_></rects>
      <tilted>0</tilted></_>
    <_>
      <rects>
        <_>
          10 12 3 12 -1.</_>
        <_>
          11 12 1 12 3.</_></rects>
      <tilted>0</tilted></_>
    <_>
      <rects>
        <_>
          10 14 2 4 -1.</_>
        <_>
          10 14 1 2 2.</_>
        <_>
          11 16 1 2 2.</_></rects>
      <tilted>0</tilted></_>
    <_>
      <rects>
        <_>
          10 14 4 6 -1.</_>
        <_>
          10 14 2 3 2.</_>
        <_>
          12 17 2 3 2.</_></rects>
      <tilted>0</tilted></_>
    <_>
      <rects>
        <_>
          11 0 8 6 -1.</_>
        <_>
          11 0 4 3 2.</_>
        <_>
          15 3 4 3 2.</_></rects>
      <tilted>0</tilted></_>
    <_>
      <rects>
        <_>
          11 4 13 20 -1.</_>
        <_>
          11 14 13 10 2.</_></rects>
      <tilted>0</tilted></_>
    <_>
      <rects>
        <_>
          11 5 6 2 -1.</_>
        <_>
          11 5 3 1 2.</_>
        <_>
          14 6 3 1 2.</_></rects>
      <tilted>0</tilted></_>
    <_>
      <rects>
        <_>
          11 5 6 5 -1.</_>
        <_>
          14 5 3 5 2.</_></rects>
      <tilted>0</tilted></_>
    <_>
      <rects>
        <_>
          11 8 3 1 -1.</_>
        <_>
          12 8 1 1 3.</_></rects>
      <tilted>0</tilted></_>
    <_>
      <rects>
        <_>
          11 8 4 2 -1.</_>
        <_>
          11 9 4 1 2.</_></rects>
      <tilted>0</tilted></_>
    <_>
      <rects>
        <_>
          11 10 1 6 -1.</_>
        <_>
          11 13 1 3 2.</_></rects>
      <tilted>0</tilted></_>
    <_>
      <rects>
        <_>
          11 13 1 2 -1.</_>
        <_>
          11 14 1 1 2.</_></rects>
      <tilted>0</tilted></_>
    <_>
      <rects>
        <_>
          11 15 13 2 -1.</_>
        <_>
          11 16 13 1 2.</_></rects>
      <tilted>0</tilted></_>
    <_>
      <rects>
        <_>
          12 0 3 5 -1.</_>
        <_>
          13 0 1 5 3.</_></rects>
      <tilted>0</tilted></_>
    <_>
      <rects>
        <_>
          12 5 12 4 -1.</_>
        <_>
          16 5 4 4 3.</_></rects>
      <tilted>0</tilted></_>
    <_>
      <rects>
        <_>
          12 14 6 10 -1.</_>
        <_>
          12 14 3 5 2.</_>
        <_>
          15 19 3 5 2.</_></rects>
      <tilted>0</tilted></_>
    <_>
      <rects>
        <_>
          12 15 4 4 -1.</_>
        <_>
          12 15 2 2 2.</_>
        <_>
          14 17 2 2 2.</_></rects>
      <tilted>0</tilted></_>
    <_>
      <rects>
        <_>
          13 3 2 2 -1.</_>
        <_>
          14 3 1 2 2.</_></rects>
      <tilted>0</tilted></_>
    <_>
      <rects>
        <_>
          13 11 2 2 -1.</_>
        <_>
          13 11 1 1 2.</_>
        <_>
          14 12 1 1 2.</_></rects>
      <tilted>0</tilted></_>
    <_>
      <rects>
        <_>
          13 11 4 4 -1.</_>
        <_>
          13 11 2 2 2.</_>
        <_>
          15 13 2 2 2.</_></rects>
      <tilted>0</tilted></_>
    <_>
      <rects>
        <_>
          13 12 1 12 -1.</_>
        <_>
          13 16 1 4 3.</_></rects>
      <tilted>0</tilted></_>
    <_>
      <rects>
        <_>
          13 18 2 2 -1.</_>
        <_>
          14 18 1 2 2.</_></rects>
      <tilted>0</tilted></_>
    <_>
      <rects>
        <_>
          13 19 2 1 -1.</_>
        <_>
          14 19 1 1 2.</_></rects>
      <tilted>0</tilted></_>
    <_>
      <rects>
        <_>
          13 19 4 2 -1.</_>
        <_>
          13 19 2 1 2.</_>
        <_>
          15 20 2 1 2.</_></rects>
      <tilted>0</tilted></_>
    <_>
      <rects>
        <_>
          14 1 8 5 -1.</_>
        <_>
          18 1 4 5 2.</_></rects>
      <tilted>0</tilted></_>
    <_>
      <rects>
        <_>
          14 3 4 10 -1.</_>
        <_>
          16 3 2 10 2.</_></rects>
      <tilted>0</tilted></_>
    <_>
      <rects>
        <_>
          14 6 4 16 -1.</_>
        <_>
          14 6 2 8 2.</_>
        <_>
          16 14 2 8 2.</_></rects>
      <tilted>0</tilted></_>
    <_>
      <rects>
        <_>
          14 10 1 6 -1.</_>
        <_>
          14 12 1 2 3.</_></rects>
      <tilted>0</tilted></_>
    <_>
      <rects>
        <_>
          14 11 2 12 -1.</_>
        <_>
          15 11 1 12 2.</_></rects>
      <tilted>0</tilted></_>
    <_>
      <rects>
        <_>
          14 16 2 4 -1.</_>
        <_>
          14 16 1 2 2.</_>
        <_>
          15 18 1 2 2.</_></rects>
      <tilted>0</tilted></_>
    <_>
      <rects>
        <_>
          15 1 4 8 -1.</_>
        <_>
          15 1 2 4 2.</_>
        <_>
          17 5 2 4 2.</_></rects>
      <tilted>0</tilted></_>
    <_>
      <rects>
        <_>
          15 8 4 6 -1.</_>
        <_>
          15 8 2 3 2.</_>
        <_>
          17 11 2 3 2.</_></rects>
      <tilted>0</tilted></_>
    <_>
      <rects>
        <_>
          16 0 2 1 -1.</_>
        <_>
          17 0 1 1 2.</_></rects>
      <tilted>0</tilted></_>
    <_>
      <rects>
        <_>
          16 0 8 1 -1.</_>
        <_>
          20 0 4 1 2.</_></rects>
      <tilted>0</tilted></_>
    <_>
      <rects>
        <_>
          16 10 4 6 -1.</_>
        <_>
          16 10 2 3 2.</_>
        <_>
          18 13 2 3 2.</_></rects>
      <tilted>0</tilted></_>
    <_>
      <rects>
        <_>
          16 11 6 3 -1.</_>
        <_>
          18 11 2 3 3.</_></rects>
      <tilted>0</tilted></_>
    <_>
      <rects>
        <_>
          16 16 2 1 -1.</_>
        <_>
          17 16 1 1 2.</_></rects>
      <tilted>0</tilted></_>
    <_>
      <rects>
        <_>
          17 12 1 2 -1.</_>
        <_>
          17 13 1 1 2.</_></rects>
      <tilted>0</tilted></_>
    <_>
      <rects>
        <_>
          18 10 1 2 -1.</_>
        <_>
          18 11 1 1 2.</_></rects>
      <tilted>0</tilted></_>
    <_>
      <rects>
        <_>
          21 2 2 2 -1.</_>
        <_>
          21 3 2 1 2.</_></rects>
      <tilted>0</tilted></_>
    <_>
      <rects>
        <_>
          21 10 2 1 -1.</_>
        <_>
          22 10 1 1 2.</_></rects>
      <tilted>0</tilted></_>
    <_>
      <rects>
        <_>
          22 0 2 8 -1.</_>
        <_>
          23 0 1 8 2.</_></rects>
      <tilted>0</tilted></_>
    <_>
      <rects>
        <_>
          22 3 2 6 -1.</_>
        <_>
          22 5 2 2 3.</_></rects>
      <tilted>0</tilted></_>
    <_>
      <rects>
        <_>
          22 18 2 2 -1.</_>
        <_>
          22 18 1 1 2.</_>
        <_>
          23 19 1 1 2.</_></rects>
      <tilted>0</tilted></_></features></cascade>
</opencv_storage>
