<?xml version="1.0"?>
<opencv_storage>
<stage5>
  <maxWeakCount>9</maxWeakCount>
  <stageThreshold>-5.4835951328277588e-01</stageThreshold>
  <weakClassifiers>
    <_>
      <internalNodes>
        0 -1 144036 -5.2467029308900237e-04</internalNodes>
      <leafValues>
        -4.7540983557701111e-01 4.1798943281173706e-01</leafValues></_>
    <_>
      <internalNodes>
        0 -1 108976 2.2908389568328857e-02</internalNodes>
      <leafValues>
        -2.8926470875740051e-01 7.0870667695999146e-01</leafValues></_>
    <_>
      <internalNodes>
        0 -1 34115 1.0144810378551483e-01</internalNodes>
      <leafValues>
        -1.9635678827762604e-01 8.4964871406555176e-01</leafValues></_>
    <_>
      <internalNodes>
        0 -1 100418 -1.9310696050524712e-02</internalNodes>
      <leafValues>
        7.0036005973815918e-01 -1.9694738090038300e-01</leafValues></_>
    <_>
      <internalNodes>
        0 -1 93938 3.1551778316497803e-02</internalNodes>
      <leafValues>
        -1.8052719533443451e-01 8.6150753498077393e-01</leafValues></_>
    <_>
      <internalNodes>
        0 -1 10756 4.6323824673891068e-02</internalNodes>
      <leafValues>
        -2.2782710194587708e-01 6.9693505764007568e-01</leafValues></_>
    <_>
      <internalNodes>
        0 -1 160036 1.5129519160836935e-03</internalNodes>
      <leafValues>
        3.4850180149078369e-01 -6.6930735111236572e-01</leafValues></_>
    <_>
      <internalNodes>
        0 -1 60120 1.4840063158771954e-05</internalNodes>
      <leafValues>
        -4.4516089558601379e-01 4.4094419479370117e-01</leafValues></_>
    <_>
      <internalNodes>
        0 -1 97 5.5722119286656380e-03</internalNodes>
      <leafValues>
        2.4107109010219574e-01 -6.6971743106842041e-01</leafValues></_></weakClassifiers></stage5>
</opencv_storage>
