<?xml version="1.0"?>
<opencv_storage>
<stage11>
  <maxWeakCount>9</maxWeakCount>
  <stageThreshold>-3.7807452678680420e-01</stageThreshold>
  <weakClassifiers>
    <_>
      <internalNodes>
        0 -1 38770 2.3498170077800751e-02</internalNodes>
      <leafValues>
        5.1282052882015705e-03 8.9090907573699951e-01</leafValues></_>
    <_>
      <internalNodes>
        0 -1 78606 -2.1556974388659000e-03</internalNodes>
      <leafValues>
        5.7753562927246094e-01 -2.2904661297798157e-01</leafValues></_>
    <_>
      <internalNodes>
        0 -1 154087 -4.2323801608290523e-05</internalNodes>
      <leafValues>
        4.1687363386154175e-01 -3.3974686264991760e-01</leafValues></_>
    <_>
      <internalNodes>
        0 -1 16150 8.6842179298400879e-02</internalNodes>
      <leafValues>
        -2.4910514056682587e-01 5.9221607446670532e-01</leafValues></_>
    <_>
      <internalNodes>
        0 -1 61198 -1.9582581520080566e-01</internalNodes>
      <leafValues>
        7.8332448005676270e-01 -1.9038704037666321e-01</leafValues></_>
    <_>
      <internalNodes>
        0 -1 76383 4.2677614837884903e-03</internalNodes>
      <leafValues>
        -2.4411234259605408e-01 5.8842945098876953e-01</leafValues></_>
    <_>
      <internalNodes>
        0 -1 18226 2.4661595001816750e-02</internalNodes>
      <leafValues>
        -2.0627528429031372e-01 6.6902673244476318e-01</leafValues></_>
    <_>
      <internalNodes>
        0 -1 133526 -6.5109599381685257e-04</internalNodes>
      <leafValues>
        5.6069242954254150e-01 -2.3612809181213379e-01</leafValues></_>
    <_>
      <internalNodes>
        0 -1 112529 -9.6115691121667624e-04</internalNodes>
      <leafValues>
        5.5964231491088867e-01 -2.4184237420558929e-01</leafValues></_></weakClassifiers></stage11>
</opencv_storage>
